{
    "type": "NeuralNetwork",
    "sizes": [
        58,
        8,
        8,
        7
    ],
    "layers": [
        {
            "weights": [],
            "biases": []
        },
        {
            "weights": [
                [
                    0.7920697927474976,
                    0.15930867195129395,
                    0.41938450932502747,
                    -0.010632063262164593,
                    -0.28143107891082764,
                    -0.24066220223903656,
                    -0.17256738245487213,
                    -0.008382735773921013,
                    -0.1798289716243744,
                    0.02974138967692852,
                    0.3697317838668823,
                    -0.5151659250259399,
                    -0.18845559656620026,
                    -1.1060459613800049,
                    -0.9477421045303345,
                    0.42533984780311584,
                    -0.3209303617477417,
                    0.38390764594078064,
                    -0.4420844316482544,
                    -0.5295665860176086,
                    0.1849403977394104,
                    0.3299121856689453,
                    0.613152027130127,
                    0.23208001255989075,
                    -0.31340956687927246,
                    -0.45071011781692505,
                    0.32237640023231506,
                    -1.2059202194213867,
                    -0.17883333563804626,
                    0.5572061538696289,
                    -0.5976728200912476,
                    0.443537175655365,
                    -0.3296984136104584,
                    -0.7737321853637695,
                    0.5519875288009644,
                    0.14187635481357574,
                    0.260545939207077,
                    -0.376025915145874,
                    -0.390956848859787,
                    -0.15709714591503143,
                    0.0898708701133728,
                    0.04277648776769638,
                    -0.10182236135005951,
                    -0.6810643672943115,
                    -0.28241899609565735,
                    0.23948884010314941,
                    0.17064835131168365,
                    -0.6681163311004639,
                    0.3030567467212677,
                    1.3334476947784424,
                    0.30333325266838074,
                    0.7351328730583191,
                    -0.19593074917793274,
                    -1.2456378936767578,
                    -0.4457322061061859,
                    -0.4582034945487976,
                    -0.07216945290565491,
                    0.25012168288230896
                ],
                [
                    0.1527417004108429,
                    -0.6690764427185059,
                    0.4762948751449585,
                    0.401125431060791,
                    -0.3968178927898407,
                    -0.15712566673755646,
                    -0.7302706241607666,
                    -0.6767055988311768,
                    -0.7217897772789001,
                    -0.5620681643486023,
                    0.37718233466148376,
                    0.23241686820983887,
                    0.6894979476928711,
                    -0.027526410296559334,
                    0.3795763850212097,
                    0.22275123000144958,
                    0.6479814052581787,
                    0.5310099124908447,
                    -0.1165674477815628,
                    0.03113143891096115,
                    0.8112993836402893,
                    0.8885359168052673,
                    -0.9237310290336609,
                    0.7910947203636169,
                    1.2720948457717896,
                    -0.02718312479555607,
                    0.2995870113372803,
                    -0.24610953032970428,
                    0.4988636374473572,
                    0.6681474447250366,
                    -0.4228399395942688,
                    0.7932770848274231,
                    0.2185869812965393,
                    0.6157335042953491,
                    -0.8358702063560486,
                    -0.9101694822311401,
                    0.5054133534431458,
                    0.7934611439704895,
                    -0.4129053056240082,
                    -0.6551948189735413,
                    -0.5250810980796814,
                    -0.5813902616500854,
                    0.1343117654323578,
                    0.05320940539240837,
                    0.2941867709159851,
                    0.12507857382297516,
                    -0.46804216504096985,
                    0.7571865320205688,
                    0.42829278111457825,
                    -1.6893173456192017,
                    -0.8538752794265747,
                    -0.850469172000885,
                    0.13556928932666779,
                    -0.1601300984621048,
                    0.5797610282897949,
                    -0.013743583112955093,
                    -0.5428528189659119,
                    -0.6037702560424805
                ],
                [
                    0.6640968322753906,
                    0.5594199299812317,
                    -0.3915003538131714,
                    -0.3263150453567505,
                    0.47532811760902405,
                    0.4731309413909912,
                    0.2692204415798187,
                    0.4281827211380005,
                    0.6376816034317017,
                    0.4740714728832245,
                    -0.6289517879486084,
                    -0.20198771357536316,
                    -0.3108506500720978,
                    0.46646514534950256,
                    -0.093336321413517,
                    0.31461408734321594,
                    -0.32209330797195435,
                    -0.2857355773448944,
                    0.45614561438560486,
                    -0.10250263661146164,
                    -0.8005712628364563,
                    -0.6966558694839478,
                    0.17076602578163147,
                    -0.6195186376571655,
                    -0.8123378753662109,
                    0.12986882030963898,
                    -0.49225351214408875,
                    0.01470242254436016,
                    0.2722567319869995,
                    0.11739595979452133,
                    0.44636601209640503,
                    0.22794409096240997,
                    0.1423347145318985,
                    0.05402392894029617,
                    -0.05932442843914032,
                    0.4123736619949341,
                    0.6371988654136658,
                    -0.4550486207008362,
                    0.3838326632976532,
                    0.5995482802391052,
                    0.5697135329246521,
                    0.2702224850654602,
                    0.1979023516178131,
                    -0.24454501271247864,
                    0.11950990557670593,
                    0.4009491801261902,
                    0.3760482668876648,
                    -0.11823102086782455,
                    0.5539392232894897,
                    -0.054834235459566116,
                    -0.07370895147323608,
                    0.244430810213089,
                    -0.15633365511894226,
                    0.32941335439682007,
                    -0.34234756231307983,
                    -0.20661036670207977,
                    0.45283225178718567,
                    0.3044242858886719
                ],
                [
                    -0.8430256247520447,
                    1.0465985536575317,
                    -0.8653314709663391,
                    -0.5909270644187927,
                    0.8724288940429688,
                    1.6600894927978516,
                    0.6129240393638611,
                    0.6454886794090271,
                    0.8304225206375122,
                    0.4785977602005005,
                    -0.7340534925460815,
                    0.011624031700193882,
                    -0.7381628751754761,
                    0.29540374875068665,
                    -0.3833068609237671,
                    -0.3764323592185974,
                    -0.7750828862190247,
                    -0.9969640970230103,
                    1.6422781944274902,
                    0.33414390683174133,
                    -1.4020915031433105,
                    -1.4459664821624756,
                    0.38173025846481323,
                    -1.5963491201400757,
                    -1.7128995656967163,
                    0.020054800435900688,
                    -0.9056183099746704,
                    1.0399415493011475,
                    -0.29453662037849426,
                    -1.1322978734970093,
                    0.7524831295013428,
                    -1.0769081115722656,
                    0.721741795539856,
                    -0.2896316647529602,
                    0.5921469926834106,
                    0.7808703780174255,
                    -0.7999674081802368,
                    -0.5794874429702759,
                    0.6202965378761292,
                    0.9010833501815796,
                    0.9505149722099304,
                    0.7465464472770691,
                    0.6291178464889526,
                    0.47333136200904846,
                    -0.0878586396574974,
                    -0.4542323350906372,
                    0.7657458782196045,
                    -0.45248278975486755,
                    -0.9694958925247192,
                    0.5519450306892395,
                    0.7091658711433411,
                    0.25134336948394775,
                    -0.021109070628881454,
                    1.1350780725479126,
                    -0.7688201069831848,
                    0.416289359331131,
                    0.5946968197822571,
                    0.354218453168869
                ],
                [
                    -1.465896487236023,
                    -1.1318540573120117,
                    0.3408040702342987,
                    0.7199606895446777,
                    -0.8546434640884399,
                    1.0678529739379883,
                    -0.8055849671363831,
                    -1.097569227218628,
                    -0.8255959749221802,
                    -0.7385603785514832,
                    0.6428415775299072,
                    0.2593687176704407,
                    0.655638575553894,
                    -0.16935569047927856,
                    0.40433454513549805,
                    -0.7134996652603149,
                    0.5087432265281677,
                    0.40465718507766724,
                    0.8953414559364319,
                    0.9414392113685608,
                    0.9699298143386841,
                    0.8439125418663025,
                    -1.3768589496612549,
                    0.803905725479126,
                    1.186421513557434,
                    -0.2533552944660187,
                    0.5740931630134583,
                    0.9805397391319275,
                    -0.3658093512058258,
                    -0.5065004229545593,
                    0.23389403522014618,
                    -0.5188934206962585,
                    0.9218143820762634,
                    0.2967599034309387,
                    -0.7111268639564514,
                    -1.2862552404403687,
                    -1.0473121404647827,
                    0.6016448140144348,
                    -0.08818164467811584,
                    -0.9015082716941833,
                    -0.6406598091125488,
                    -0.8444057703018188,
                    0.8934646248817444,
                    1.0451284646987915,
                    0.3591921925544739,
                    -0.5726491808891296,
                    -0.8940891623497009,
                    0.5790281891822815,
                    -0.7678606510162354,
                    -2.481231927871704,
                    -0.8431597352027893,
                    -1.1494823694229126,
                    0.45808637142181396,
                    1.2858179807662964,
                    0.7860403656959534,
                    0.7531225085258484,
                    -0.7009670734405518,
                    -0.456694632768631
                ],
                [
                    -0.13553102314472198,
                    0.6512210369110107,
                    -0.34888598322868347,
                    -0.36619558930397034,
                    0.5396010279655457,
                    0.682392418384552,
                    0.5784394145011902,
                    0.2258371114730835,
                    0.8981871604919434,
                    0.2445306032896042,
                    -0.35052791237831116,
                    0.2587624788284302,
                    0.24650371074676514,
                    1.5409530401229858,
                    0.8000048995018005,
                    0.3078785836696625,
                    -0.08539946377277374,
                    -0.6977399587631226,
                    0.7310585379600525,
                    0.2225283682346344,
                    -0.9783533215522766,
                    -0.8671635985374451,
                    -0.5526579022407532,
                    -1.0680890083312988,
                    -0.27129626274108887,
                    0.38813576102256775,
                    -0.5648444294929504,
                    0.8221030831336975,
                    0.3764161765575409,
                    -0.12489897757768631,
                    0.8358097076416016,
                    0.13226871192455292,
                    0.42803362011909485,
                    0.7332249879837036,
                    -0.4837985634803772,
                    0.49736854434013367,
                    0.43613433837890625,
                    -0.04528794065117836,
                    0.4517369866371155,
                    0.8774948716163635,
                    0.5468587875366211,
                    0.6038762331008911,
                    0.2776349186897278,
                    0.4272380769252777,
                    0.23552191257476807,
                    0.32623597979545593,
                    0.37698599696159363,
                    1.001004934310913,
                    0.6413397789001465,
                    -1.0900062322616577,
                    -0.36664527654647827,
                    -0.5951077342033386,
                    0.07668783515691757,
                    1.017582893371582,
                    0.20348118245601654,
                    0.22570572793483734,
                    0.45732417702674866,
                    0.12274479120969772
                ],
                [
                    -0.7353883385658264,
                    0.11707217991352081,
                    -0.1724303960800171,
                    -0.04589587077498436,
                    0.06928836554288864,
                    1.192026972770691,
                    0.004233046900480986,
                    0.21191726624965668,
                    0.025170953944325447,
                    0.1695033311843872,
                    -0.2704925537109375,
                    -0.18259017169475555,
                    -0.08937182277441025,
                    0.03890063241124153,
                    -0.10350000113248825,
                    -0.508348822593689,
                    -0.09626293182373047,
                    -0.1699066013097763,
                    1.1503592729568481,
                    0.22077973186969757,
                    -0.5902808308601379,
                    -0.5911639332771301,
                    -0.17327268421649933,
                    -0.4161558151245117,
                    -0.6593843698501587,
                    -0.038542620837688446,
                    -0.430452436208725,
                    0.7279643416404724,
                    -0.3875478208065033,
                    -0.7525069713592529,
                    0.2061356008052826,
                    -0.5464659333229065,
                    0.6194882988929749,
                    -0.08876746892929077,
                    0.08545534312725067,
                    0.10356886684894562,
                    -0.49198049306869507,
                    -0.283298134803772,
                    0.1901693344116211,
                    0.05173195153474808,
                    -0.05673515796661377,
                    0.13267937302589417,
                    0.435696005821228,
                    0.534999430179596,
                    0.14935384690761566,
                    -0.25687679648399353,
                    0.1302235722541809,
                    0.14869022369384766,
                    -0.8168647885322571,
                    -0.37591245770454407,
                    0.23458309471607208,
                    -0.24925540387630463,
                    -0.015379169955849648,
                    0.8440715074539185,
                    0.015914715826511383,
                    0.3046163320541382,
                    0.26041746139526367,
                    0.12698982656002045
                ],
                [
                    -0.46514058113098145,
                    -0.6267912983894348,
                    0.7617590427398682,
                    0.47772151231765747,
                    -0.8962937593460083,
                    -0.06577552855014801,
                    -0.5282430052757263,
                    -0.33458831906318665,
                    -0.966782808303833,
                    -0.6328524947166443,
                    0.7067731618881226,
                    -0.5623553991317749,
                    -0.24729353189468384,
                    -2.151278257369995,
                    -1.076737880706787,
                    -0.5774483680725098,
                    -0.08857251703739166,
                    0.6479218602180481,
                    0.09368139505386353,
                    -0.35525405406951904,
                    1.2420011758804321,
                    1.1591687202453613,
                    0.3941780626773834,
                    1.3165405988693237,
                    0.46153751015663147,
                    -0.8603338003158569,
                    0.7864474058151245,
                    -1.168831467628479,
                    -0.724663257598877,
                    -0.29687657952308655,
                    -0.9807989001274109,
                    -0.1105414554476738,
                    0.22227442264556885,
                    -1.0100913047790527,
                    0.5863267183303833,
                    -0.73658287525177,
                    -1.0185703039169312,
                    0.0167655311524868,
                    -0.8719981908798218,
                    -1.034883737564087,
                    -0.7859485745429993,
                    -0.6902281045913696,
                    0.2919211983680725,
                    -0.23099634051322937,
                    -0.4370345175266266,
                    -0.2966599762439728,
                    -0.5993006825447083,
                    -1.1962558031082153,
                    -1.1521490812301636,
                    0.9008479714393616,
                    0.5985768437385559,
                    0.3461459279060364,
                    -0.4098868668079376,
                    -1.0937479734420776,
                    -0.24118821322917938,
                    -0.31675663590431213,
                    -0.4891144633293152,
                    -0.2435726821422577
                ]
            ],
            "biases": [
                0.9000711441040039,
                0.3416840732097626,
                -0.322013258934021,
                -0.13204802572727203,
                0.6126531362533569,
                -0.6061687469482422,
                -0.24847134947776794,
                1.3060885667800903
            ]
        },
        {
            "weights": [
                [
                    1.8779137134552002,
                    -2.990271806716919,
                    0.6662813425064087,
                    1.9794801473617554,
                    -5.289446830749512,
                    -0.41546568274497986,
                    -0.19203053414821625,
                    0.16239061951637268
                ],
                [
                    0.18343709409236908,
                    2.365034580230713,
                    0.1746596246957779,
                    -3.5097291469573975,
                    0.14921514689922333,
                    0.6113535761833191,
                    -1.3128581047058105,
                    -1.3521777391433716
                ],
                [
                    -1.6532520055770874,
                    2.098499298095703,
                    -1.784544587135315,
                    -2.9905948638916016,
                    3.136828899383545,
                    -0.5477780103683472,
                    -0.3449685573577881,
                    0.2868787944316864
                ],
                [
                    1.4261627197265625,
                    1.0747424364089966,
                    -1.574594497680664,
                    -3.649397850036621,
                    0.37268295884132385,
                    -2.4756429195404053,
                    -1.7366999387741089,
                    2.5023398399353027
                ],
                [
                    -2.5523276329040527,
                    0.15547968447208405,
                    0.17860190570354462,
                    1.8792897462844849,
                    1.8039528131484985,
                    2.4241132736206055,
                    1.194193959236145,
                    -2.9197304248809814
                ],
                [
                    1.2430648803710938,
                    -1.0238076448440552,
                    -1.5799847841262817,
                    0.4555067718029022,
                    1.6725479364395142,
                    -3.061967372894287,
                    0.8831110596656799,
                    4.44047212600708
                ],
                [
                    2.0959088802337646,
                    -1.0820056200027466,
                    1.502734899520874,
                    -0.42764171957969666,
                    -4.068064212799072,
                    0.045063577592372894,
                    -0.9802170991897583,
                    -0.6137655973434448
                ],
                [
                    -2.1813161373138428,
                    -2.851835250854492,
                    0.767751157283783,
                    3.8220088481903076,
                    -0.886742353439331,
                    1.703399658203125,
                    1.0524868965148926,
                    -3.6099588871002197
                ]
            ],
            "biases": [
                0.3719671666622162,
                0.6823687553405762,
                -0.481685608625412,
                0.20985938608646393,
                -0.5875411033630371,
                -0.5582076907157898,
                1.3304473161697388,
                -1.2599347829818726
            ]
        },
        {
            "weights": [
                [
                    -3.08829402923584,
                    -0.22541721165180206,
                    2.2353572845458984,
                    3.153350353240967,
                    -4.866423606872559,
                    1.6095004081726074,
                    -2.203453302383423,
                    -4.257946014404297
                ],
                [
                    -3.5599541664123535,
                    -2.278965950012207,
                    -2.4874165058135986,
                    -4.406961441040039,
                    0.4485149383544922,
                    3.9710750579833984,
                    -2.630901575088501,
                    -4.056630611419678
                ],
                [
                    3.069898843765259,
                    -2.492319345474243,
                    -2.6675214767456055,
                    -1.0625665187835693,
                    -4.868475914001465,
                    2.253622531890869,
                    1.5087076425552368,
                    -2.1704158782958984
                ],
                [
                    -4.270729064941406,
                    -2.2003889083862305,
                    -1.5158613920211792,
                    -2.9625163078308105,
                    2.1063666343688965,
                    -2.314797878265381,
                    -3.7229511737823486,
                    3.6849112510681152
                ],
                [
                    3.8757851123809814,
                    -2.513671875,
                    -4.3376312255859375,
                    -2.9622061252593994,
                    -0.22291719913482666,
                    -4.4226226806640625,
                    1.8150005340576172,
                    2.1106576919555664
                ],
                [
                    -3.09432315826416,
                    1.6657838821411133,
                    2.6943199634552,
                    -1.4797331094741821,
                    2.192654609680176,
                    -3.865647315979004,
                    -2.2975215911865234,
                    -3.6802525520324707
                ],
                [
                    -0.4507572650909424,
                    3.628087043762207,
                    -2.529649257659912,
                    -0.9998489618301392,
                    -2.1488025188446045,
                    -4.056369304656982,
                    2.987279176712036,
                    -2.8310630321502686
                ]
            ],
            "biases": [
                -1.867773413658142,
                0.46553075313568115,
                -1.899212121963501,
                -1.3135499954223633,
                -3.1791317462921143,
                -2.0960288047790527,
                -1.5902386903762817
            ]
        }
    ],
    "inputLookup": null,
    "inputLookupLength": 0,
    "outputLookup": null,
    "outputLookupLength": 0,
    "options": {
        "inputSize": 0,
        "outputSize": 0,
        "binaryThresh": 0.5,
        "activation": "sigmoid",
        "iterations": 20000,
        "errorThresh": 0.0005,
        "log": true,
        "logPeriod": 100,
        "hiddenLayers": [
            8,
            8
        ]
    },
    "trainOpts": {
        "activation": "sigmoid",
        "iterations": 20000,
        "errorThresh": 0.0005,
        "log": true,
        "logPeriod": 100,
        "leakyReluAlpha": 0.01,
        "learningRate": 0.3,
        "momentum": 0.1,
        "callbackPeriod": 10,
        "timeout": "Infinity",
        "beta1": 0.9,
        "beta2": 0.999,
        "epsilon": 1e-8
    }
}